digraph Tree {
node [shape=box, style="filled, rounded", color="black", fontname=helvetica] ;
edge [fontname=helvetica] ;
0 [label="X[3] <= 181.5\nentropy = 9.31\nsamples = 31647\nvalue = [2, 3, 1 ... 1, 1, 1]", fillcolor="#ffffff"] ;
1 [label="X[3] <= 103.5\nentropy = 7.41\nsamples = 15862\nvalue = [2, 3, 1 ... 0, 0, 0]", fillcolor="#ffffff"] ;
0 -> 1 [labeldistance=2.5, labelangle=45, headlabel="True"] ;
2 [label="X[3] <= 67.5\nentropy = 6.55\nsamples = 7958\nvalue = [2, 3, 1 ... 0, 0, 0]", fillcolor="#ffffff"] ;
1 -> 2 ;
3 [label="X[3] <= 42.5\nentropy = 5.94\nsamples = 3968\nvalue = [2, 3, 1 ... 0, 0, 0]", fillcolor="#ffffff"] ;
2 -> 3 ;
4 [label="X[3] <= 22.5\nentropy = 5.26\nsamples = 1989\nvalue = [2, 3, 1 ... 0, 0, 0]", fillcolor="#ffffff"] ;
3 -> 4 ;
5 [label="entropy = 4.21\nsamples = 969\nvalue = [2, 3, 1 ... 0, 0, 0]", fillcolor="#ffffff"] ;
4 -> 5 ;
6 [label="entropy = 4.31\nsamples = 1020\nvalue = [0, 0, 0 ... 0, 0, 0]", fillcolor="#ffffff"] ;
4 -> 6 ;
7 [label="X[3] <= 56.5\nentropy = 4.61\nsamples = 1979\nvalue = [0, 0, 0 ... 0, 0, 0]", fillcolor="#fffffe"] ;
3 -> 7 ;
8 [label="entropy = 3.79\nsamples = 966\nvalue = [0, 0, 0 ... 0, 0, 0]", fillcolor="#fffffe"] ;
7 -> 8 ;
9 [label="entropy = 3.45\nsamples = 1013\nvalue = [0, 0, 0 ... 0, 0, 0]", fillcolor="#fffefd"] ;
7 -> 9 ;
10 [label="X[3] <= 86.5\nentropy = 5.16\nsamples = 3990\nvalue = [0, 0, 0 ... 0, 0, 0]", fillcolor="#ffffff"] ;
2 -> 10 ;
11 [label="X[3] <= 76.5\nentropy = 4.24\nsamples = 2026\nvalue = [0, 0, 0 ... 0, 0, 0]", fillcolor="#ffffff"] ;
10 -> 11 ;
12 [label="entropy = 3.16\nsamples = 961\nvalue = [0, 0, 0 ... 0, 0, 0]", fillcolor="#ffffff"] ;
11 -> 12 ;
13 [label="entropy = 3.32\nsamples = 1065\nvalue = [0, 0, 0 ... 0, 0, 0]", fillcolor="#fffffe"] ;
11 -> 13 ;
14 [label="X[3] <= 94.5\nentropy = 4.08\nsamples = 1964\nvalue = [0, 0, 0 ... 0, 0, 0]", fillcolor="#fffffe"] ;
10 -> 14 ;
15 [label="entropy = 3.0\nsamples = 951\nvalue = [0, 0, 0 ... 0, 0, 0]", fillcolor="#fffefc"] ;
14 -> 15 ;
16 [label="entropy = 3.16\nsamples = 1013\nvalue = [0, 0, 0 ... 0, 0, 0]", fillcolor="#fffffe"] ;
14 -> 16 ;
17 [label="X[3] <= 139.5\nentropy = 6.27\nsamples = 7904\nvalue = [0, 0, 0 ... 0, 0, 0]", fillcolor="#ffffff"] ;
1 -> 17 ;
18 [label="X[3] <= 121.5\nentropy = 5.16\nsamples = 3901\nvalue = [0, 0, 0 ... 0, 0, 0]", fillcolor="#ffffff"] ;
17 -> 18 ;
19 [label="X[3] <= 112.5\nentropy = 4.17\nsamples = 1977\nvalue = [0, 0, 0 ... 0, 0, 0]", fillcolor="#ffffff"] ;
18 -> 19 ;
20 [label="entropy = 3.17\nsamples = 1003\nvalue = [0, 0, 0 ... 0, 0, 0]", fillcolor="#fffffe"] ;
19 -> 20 ;
21 [label="entropy = 3.16\nsamples = 974\nvalue = [0, 0, 0 ... 0, 0, 0]", fillcolor="#ffffff"] ;
19 -> 21 ;
22 [label="X[3] <= 130.5\nentropy = 4.16\nsamples = 1924\nvalue = [0, 0, 0 ... 0, 0, 0]", fillcolor="#fffffe"] ;
18 -> 22 ;
23 [label="entropy = 3.16\nsamples = 1005\nvalue = [0, 0, 0 ... 0, 0, 0]", fillcolor="#fffffe"] ;
22 -> 23 ;
24 [label="entropy = 3.16\nsamples = 919\nvalue = [0, 0, 0 ... 0, 0, 0]", fillcolor="#fffffd"] ;
22 -> 24 ;
25 [label="X[3] <= 159.5\nentropy = 5.38\nsamples = 4003\nvalue = [0, 0, 0 ... 0, 0, 0]", fillcolor="#ffffff"] ;
17 -> 25 ;
26 [label="X[3] <= 149.5\nentropy = 4.31\nsamples = 2019\nvalue = [0, 0, 0 ... 0, 0, 0]", fillcolor="#ffffff"] ;
25 -> 26 ;
27 [label="entropy = 3.31\nsamples = 986\nvalue = [0, 0, 0 ... 0, 0, 0]", fillcolor="#fffffe"] ;
26 -> 27 ;
28 [label="entropy = 3.32\nsamples = 1033\nvalue = [0, 0, 0 ... 0, 0, 0]", fillcolor="#fffffd"] ;
26 -> 28 ;
29 [label="X[3] <= 169.5\nentropy = 4.45\nsamples = 1984\nvalue = [0, 0, 0 ... 0, 0, 0]", fillcolor="#ffffff"] ;
25 -> 29 ;
30 [label="entropy = 3.32\nsamples = 955\nvalue = [0, 0, 0 ... 0, 0, 0]", fillcolor="#fffffe"] ;
29 -> 30 ;
31 [label="entropy = 3.58\nsamples = 1029\nvalue = [0, 0, 0 ... 0, 0, 0]", fillcolor="#ffffff"] ;
29 -> 31 ;
32 [label="X[3] <= 322.5\nentropy = 9.22\nsamples = 15785\nvalue = [0, 0, 0 ... 1, 1, 1]", fillcolor="#ffffff"] ;
0 -> 32 [labeldistance=2.5, labelangle=-45, headlabel="False"] ;
33 [label="X[3] <= 237.5\nentropy = 7.08\nsamples = 7900\nvalue = [0, 0, 0 ... 0, 0, 0]", fillcolor="#ffffff"] ;
32 -> 33 ;
34 [label="X[3] <= 207.5\nentropy = 5.79\nsamples = 3929\nvalue = [0, 0, 0 ... 0, 0, 0]", fillcolor="#ffffff"] ;
33 -> 34 ;
35 [label="X[3] <= 194.5\nentropy = 4.69\nsamples = 1980\nvalue = [0, 0, 0 ... 0, 0, 0]", fillcolor="#ffffff"] ;
34 -> 35 ;
36 [label="entropy = 3.69\nsamples = 986\nvalue = [0, 0, 0 ... 0, 0, 0]", fillcolor="#fffffe"] ;
35 -> 36 ;
37 [label="entropy = 3.69\nsamples = 994\nvalue = [0, 0, 0 ... 0, 0, 0]", fillcolor="#ffffff"] ;
35 -> 37 ;
38 [label="X[3] <= 221.5\nentropy = 4.89\nsamples = 1949\nvalue = [0, 0, 0 ... 0, 0, 0]", fillcolor="#ffffff"] ;
34 -> 38 ;
39 [label="entropy = 3.8\nsamples = 975\nvalue = [0, 0, 0 ... 0, 0, 0]", fillcolor="#fffffe"] ;
38 -> 39 ;
40 [label="entropy = 3.98\nsamples = 974\nvalue = [0, 0, 0 ... 0, 0, 0]", fillcolor="#fffffe"] ;
38 -> 40 ;
41 [label="X[3] <= 273.5\nentropy = 6.37\nsamples = 3971\nvalue = [0, 0, 0 ... 0, 0, 0]", fillcolor="#ffffff"] ;
33 -> 41 ;
42 [label="X[3] <= 254.5\nentropy = 5.16\nsamples = 2009\nvalue = [0, 0, 0 ... 0, 0, 0]", fillcolor="#fffffe"] ;
41 -> 42 ;
43 [label="entropy = 4.08\nsamples = 1023\nvalue = [0, 0, 0 ... 0, 0, 0]", fillcolor="#fefffd"] ;
42 -> 43 ;
44 [label="entropy = 4.24\nsamples = 986\nvalue = [0, 0, 0 ... 0, 0, 0]", fillcolor="#fefffe"] ;
42 -> 44 ;
45 [label="X[3] <= 296.5\nentropy = 5.59\nsamples = 1962\nvalue = [0, 0, 0 ... 0, 0, 0]", fillcolor="#ffffff"] ;
41 -> 45 ;
46 [label="entropy = 4.51\nsamples = 975\nvalue = [0, 0, 0 ... 0, 0, 0]", fillcolor="#fffffe"] ;
45 -> 46 ;
47 [label="entropy = 4.66\nsamples = 987\nvalue = [0, 0, 0 ... 0, 0, 0]", fillcolor="#ffffff"] ;
45 -> 47 ;
48 [label="X[3] <= 492.5\nentropy = 9.35\nsamples = 7885\nvalue = [0, 0, 0 ... 1, 1, 1]", fillcolor="#ffffff"] ;
32 -> 48 ;
49 [label="X[3] <= 388.5\nentropy = 7.33\nsamples = 3943\nvalue = [0, 0, 0 ... 0, 0, 0]", fillcolor="#ffffff"] ;
48 -> 49 ;
50 [label="X[3] <= 351.5\nentropy = 6.01\nsamples = 1972\nvalue = [0, 0, 0 ... 0, 0, 0]", fillcolor="#ffffff"] ;
49 -> 50 ;
51 [label="entropy = 4.83\nsamples = 976\nvalue = [0, 0, 0 ... 0, 0, 0]", fillcolor="#ffffff"] ;
50 -> 51 ;
52 [label="entropy = 5.19\nsamples = 996\nvalue = [0, 0, 0 ... 0, 0, 0]", fillcolor="#ffffff"] ;
50 -> 52 ;
53 [label="X[3] <= 432.5\nentropy = 6.64\nsamples = 1971\nvalue = [0, 0, 0 ... 0, 0, 0]", fillcolor="#ffffff"] ;
49 -> 53 ;
54 [label="entropy = 5.42\nsamples = 990\nvalue = [0, 0, 0 ... 0, 0, 0]", fillcolor="#ffffff"] ;
53 -> 54 ;
55 [label="entropy = 5.87\nsamples = 981\nvalue = [0, 0, 0 ... 0, 0, 0]", fillcolor="#ffffff"] ;
53 -> 55 ;
56 [label="X[3] <= 695.5\nentropy = 9.38\nsamples = 3942\nvalue = [0, 0, 0 ... 1, 1, 1]", fillcolor="#ffffff"] ;
48 -> 56 ;
57 [label="X[3] <= 574.5\nentropy = 7.55\nsamples = 1971\nvalue = [0, 0, 0 ... 0, 0, 0]", fillcolor="#ffffff"] ;
56 -> 57 ;
58 [label="entropy = 6.29\nsamples = 985\nvalue = [0, 0, 0 ... 0, 0, 0]", fillcolor="#ffffff"] ;
57 -> 58 ;
59 [label="entropy = 6.82\nsamples = 986\nvalue = [0, 0, 0 ... 0, 0, 0]", fillcolor="#feffff"] ;
57 -> 59 ;
60 [label="X[3] <= 908.5\nentropy = 9.21\nsamples = 1971\nvalue = [0, 0, 0 ... 1, 1, 1]", fillcolor="#ffffff"] ;
56 -> 60 ;
61 [label="entropy = 7.54\nsamples = 986\nvalue = [0, 0, 0 ... 0, 0, 0]", fillcolor="#ffffff"] ;
60 -> 61 ;
62 [label="entropy = 8.87\nsamples = 985\nvalue = [0, 0, 0 ... 1, 1, 1]", fillcolor="#ffffff"] ;
60 -> 62 ;
}